1 128
27 -0.020398993 0.008994257 0.19414034 0.34272802 -0.35390112 -0.2707358 0.2457067 0.34134775 -0.19079562 -0.14316516 0.28076732 -0.058335897 -0.17258078 0.2493271 -0.18488918 -0.06908439 0.10943018 0.03773271 -0.31518397 -0.35944924 0.27815166 0.1928817 0.25707436 0.029020749 0.24159895 -0.12954624 -0.036002737 0.21944672 -0.28613645 -0.14973618 -0.28575376 -0.03538046 0.3628463 -0.27843428 -0.08878067 -0.073715076 0.3072797 -0.22562142 0.0017180591 -0.18084009 -0.36533594 0.19048597 -0.33322963 -0.16707283 -0.0013352641 -0.011267243 -0.29144686 0.36576197 0.18952635 0.35124528 -0.31034097 0.17102821 -0.15738174 0.031366758 0.3233024 -0.16974896 0.17185336 -0.2581875 -0.13499063 0.35753587 -0.060016684 0.012225515 -0.1575166 -0.29226303 -0.057367343 0.09395534 -0.03378207 0.21051027 -0.1043477 0.08597674 0.20754765 0.3174942 -0.055302836 -0.35029328 0.16626342 0.02175168 0.28310338 -0.030938694 -0.10036982 -0.3329795 -0.032584935 0.10752735 0.20547947 0.26829484 -0.21695696 0.070712686 0.23163095 -0.18252613 -0.1182056 0.2585939 0.06206416 0.007224781 0.1321434 0.008284645 0.36591652 0.19251424 -0.3392327 -0.2678727 0.034292925 0.2431832 -0.32790816 0.13945103 0.19743216 0.2184334 0.284055 -0.23462917 0.04205953 0.23004948 -0.10804057 -0.2348515 -0.015605606 -0.31836894 -0.2130341 0.27026922 0.12753625 0.27487713 0.25869292 0.2864821 -0.14414617 -0.021372087 0.08933637 -0.17191178 0.3191218 -0.3750216 0.25733855 0.11086934 -0.18765351 0.16731471
