34 128
1 -0.02614674 0.0039380523 -0.025209907 0.021562243 -0.1616421 -0.053246316 0.07180263 0.13882865 -0.25102663 -0.033483814 0.14961192 -0.12362973 -0.22273146 -0.032208994 0.07201054 -0.18149371 0.16139787 -1.52376315e-05 -0.24284527 -0.31496316 0.050398547 0.09761164 0.10624864 0.2512572 0.10669324 -0.051640783 0.0215524 0.06654485 -0.071133785 -0.20288168 -0.27292913 -0.017013054 0.07205806 -0.20489708 -0.12152011 0.028115563 0.23205732 0.010748481 0.056565244 -0.10691118 0.03294478 -0.0038973296 -0.10679412 -0.0014232382 -0.06972573 -0.009285305 -0.08258283 0.049931668 0.12958768 0.060178783 -0.07698999 0.004624423 0.1205089 0.026669888 0.23377332 -0.017360486 0.105738886 -0.15799461 -0.055423263 0.15253656 0.090106025 0.016236253 -0.08379114 -0.0661774 0.010547115 0.045876604 -0.0016524411 0.035946872 -0.16846752 -0.13820094 0.20300089 0.09106562 -0.02715306 -0.056069233 -0.006593752 0.06102849 0.013115691 -0.03025088 0.062444106 -0.017925823 0.05765429 -0.004151809 -0.01167546 0.04670453 -0.11942946 0.15492122 0.10818746 -0.0030449308 0.020670176 0.0798263 -0.012277947 0.12402603 0.17876485 0.026751457 0.15272707 0.122309946 -0.28073567 -0.11370651 -0.08221651 0.07172295 -0.10297272 0.07050184 0.09172448 0.17434041 0.25870064 -0.19656298 0.055002347 -0.05014112 -0.013827358 -0.15277338 0.06670882 -0.13355118 0.022479372 0.13870841 0.0847437 0.074648984 -0.012460236 0.21590847 -0.042287037 0.08509512 0.073023774 -0.09097853 0.07948038 -0.11531591 0.06109877 -0.044626534 0.019246193 0.051732246
34 0.07215615 0.0009865011 0.19657442 -0.094588965 0.041685604 -0.16159362 0.028494416 0.15146863 0.036383368 0.048677377 0.28350264 -0.024964666 -0.042992063 -0.07622854 -0.10679919 -0.13206977 -0.069577284 0.18137388 -0.15546301 -0.04469037 0.18636698 0.036269598 0.13144141 0.041964225 -0.10467041 0.053170428 -0.07074358 0.15406024 0.016896883 0.043367084 -0.24096464 0.040226795 0.017323807 -0.04262282 -0.08141134 -0.08274309 0.09203065 0.12996982 0.19230185 -0.060652915 -0.08004642 0.15021177 -0.24042442 -0.120499335 0.06755855 0.04492498 0.07133201 -0.033353172 -0.099363 0.11737419 -0.040973566 0.04408494 0.07136961 0.076840624 0.20146568 0.014677751 0.2067288 -0.1091652 -0.054793775 -0.03596814 0.117250435 -0.049542602 -0.0071957475 -0.065540075 0.12669453 -0.14109352 0.034904785 0.13598199 0.0057350374 -0.044418663 0.040905174 0.15568143 -0.00024120302 -0.0713772 -0.100450434 -0.056759246 0.09678422 0.18784113 -0.070978515 0.16541226 -0.04679842 -0.07202139 0.026687343 0.09847244 0.043881517 0.086763546 0.2517522 -0.20771983 0.10986318 0.242642 -0.09978835 -0.03762473 -0.14681749 -0.053400446 0.091480836 -0.08548521 -0.21428363 -0.308828 0.067307875 -0.08252946 -0.30643883 -0.040931437 0.032808192 -0.063925825 -0.07973665 -0.08701811 -0.10746244 -0.14239524 -0.061596192 -0.072121024 0.009476744 -0.09937312 -0.041476768 0.14039789 -0.06611064 0.004190911 -0.05392161 0.21894461 0.057768237 0.1627585 -0.08586102 -0.11500014 0.080345124 -0.013944255 -0.0798232 -0.11544458 -0.13716716 0.04284445
3 0.011460794 -0.06770824 0.03914162 -0.098157935 -0.117155425 -0.19259056 -0.0176423 0.10251237 -0.12821727 -0.05431319 0.22460172 0.04028286 -0.11285173 0.03970237 0.10754376 -0.09638089 0.075996265 0.06308973 -0.15978867 -0.15487047 0.102792524 0.02470522 0.12936512 0.10353437 0.081550114 0.040632736 -0.0030425459 0.04074708 0.0013464198 -0.16687387 -0.23927945 -0.0756028 0.14179379 -0.05864601 -0.109877914 0.09486037 0.23444164 0.020305391 0.09774673 -0.045901302 0.011323195 0.10270564 -0.059101846 -0.07028722 -0.076945506 0.04018636 -0.007920461 -0.0932327 0.16030368 -0.0009326145 0.027263533 0.009842886 0.08448903 0.096021 0.21441858 0.0835487 0.08129717 -0.1522769 -0.07157426 0.080364674 0.15274717 0.002346433 -0.06747081 0.0035982055 0.036793523 0.065684885 0.12053637 0.058607228 -0.09326203 -0.13017958 0.15679398 -0.024472887 -0.03732004 -0.15228271 0.017277 0.08816608 0.018082656 -0.03609288 -0.024571171 0.020181067 0.084995724 -0.011552429 0.07864059 0.10263157 -0.02721726 0.09334525 0.027304336 -0.15635873 -0.036010616 0.045289576 -0.11450437 0.07074841 0.074238524 0.027287671 0.16281556 0.1085281 -0.2511324 -0.17394634 0.09939664 -0.066973455 -0.12426305 0.050470836 0.19794996 0.064202294 0.14459625 -0.08885879 0.045477178 -0.054695595 0.058202542 -0.16892652 0.010606321 0.036323767 0.014260206 0.059513487 0.11070162 0.024764925 -0.07322526 0.08494301 0.030028611 0.064640716 0.0016432151 -0.034640275 0.0047980864 -0.06609839 -0.003732113 -0.08159682 -0.04525462 -0.016430207
33 0.072847426 -0.11736477 0.18412715 -0.08414701 -0.042423356 -0.3013923 -0.07526049 0.09228604 0.047556713 -0.028277924 0.32707986 0.074897945 0.057289343 -0.0136327185 -0.059689183 -0.07301537 -0.03075165 0.10938111 -0.19279933 -0.10458473 0.1976433 0.059981994 0.20501263 -0.041761972 -0.02654825 0.11782114 -0.031718843 0.11558608 -0.042728543 -0.070078306 -0.22853072 -0.112031594 0.100380674 0.1437376 -0.13851854 0.04250243 0.12525587 -0.034340486 0.14951688 0.03929145 -0.09537035 0.1230041 -0.09452972 -0.14392161 -0.089547895 -0.026712483 0.11109611 -0.06773238 0.053612813 0.027184168 0.06331882 -0.020000976 -0.031297475 0.11499693 0.08131895 0.036694597 0.19468926 -0.24736695 -0.13262013 0.103926286 0.2018518 -0.014729459 -0.06250278 -0.1020398 0.106328666 -0.053346444 0.112237446 0.11052824 0.005555509 -0.10188967 0.11329058 -0.034978937 -0.078090146 -0.2228516 0.021203814 -0.078772716 0.12891407 -0.024887236 -0.07276372 0.09098885 -0.031317923 -0.028692516 0.14933006 0.16524927 -0.06416879 0.115178324 0.040602367 -0.22434321 -0.009176768 0.1420682 -0.09256774 0.0037329313 -0.0029591112 0.033330448 0.12736191 -0.0016565148 -0.19617449 -0.3214014 0.082048915 -0.06495509 -0.20617165 -0.034755807 0.18362561 -0.021301076 -0.012545042 -0.14325896 -0.05573889 -0.06554455 0.082537495 -0.023649354 -0.073793694 -0.0062440233 0.07118929 0.14106372 0.020210309 0.05963546 -0.13182572 0.09129495 0.0789804 -0.055941775 -0.12816355 -0.09404523 0.0023792207 0.007255409 -0.039626934 -0.09818951 -0.18310979 0.0037236316
2 -0.069466434 -0.07220006 0.030409165 -0.091332786 -0.0891075 -0.14794208 0.027975425 0.098689385 -0.25458732 -0.038203735 0.27065247 -0.013370811 -0.21791229 -0.100707725 0.06895946 -0.22025116 0.18747014 0.054155353 -0.113529965 -0.2586118 0.044659346 -0.0045260135 0.11471772 0.255891 0.16815405 0.04183559 0.02371606 0.050418135 0.0023234372 -0.25363067 -0.23374079 -0.004758634 0.09365812 -0.13495569 -0.068539955 0.054598834 0.19575268 0.03311789 0.078304015 -0.11686877 0.09648824 0.082072385 -0.18672752 -0.00971178 0.009041738 0.010660575 -0.035586406 0.0051232055 0.12521625 0.06308941 -0.025821183 0.01743345 0.13138266 0.064935625 0.23840678 -0.00061000884 0.04772249 -0.14368819 -0.01076583 0.1095291 0.17280856 0.02681234 -0.017085912 -0.006267369 -0.007897295 0.035955448 0.08022424 0.07971427 -0.060034864 -0.11529211 0.16303413 -0.015925527 0.052862383 -0.1345802 -0.06966121 0.16233675 0.0018574856 0.036154166 0.023154527 0.012201837 0.0022255362 -0.015608895 -0.0069927354 0.08420972 -0.03518238 0.12764637 0.074281685 -0.10170011 -0.026788361 0.0640551 -0.07514015 0.113510706 0.10766219 -0.0022564537 0.11314956 0.05151876 -0.23210153 -0.11183916 0.04910621 0.01655003 -0.11776522 0.05504599 0.06630616 0.10052225 0.27298093 -0.13992745 0.00060765306 -0.08718528 0.050624087 -0.2045528 0.067792065 -0.09816019 -0.0017038019 0.006807466 0.042630006 -0.0263855 -0.0326872 0.15052754 -0.061467882 0.13967828 0.010985278 -0.048822314 0.0343532 -0.14260085 -0.0677402 -0.0469065 -0.0021592712 0.013504191
4 -0.020919092 -0.02754811 0.046685603 -0.0962611 -0.09317184 -0.10129344 0.01714918 0.098202646 -0.20227459 -0.051090963 0.18929021 -0.023314675 -0.20948033 -0.042457912 0.07279499 -0.17295943 0.13684654 0.04277481 -0.13291608 -0.2287749 0.04008242 0.005156555 0.108613454 0.19081108 0.13366874 0.010389772 0.012529547 0.040685795 -0.006484445 -0.19630176 -0.20132227 0.008389372 0.099507056 -0.1764502 -0.06275854 0.04061267 0.23793703 0.071805105 0.0751435 -0.10083084 0.076657206 0.055725735 -0.16743946 -0.013161342 -0.008818936 0.054565676 -0.024400877 -0.033496726 0.10240469 0.056171335 -0.06499876 0.047600724 0.13548101 0.07494641 0.300039 0.029003024 0.072218224 -0.10861822 -0.028285986 0.08301156 0.14194235 0.016206952 -0.016982574 0.022986075 0.010718483 0.047539793 0.0846978 0.058643214 -0.12432847 -0.1285022 0.16475412 0.04950149 0.035568293 -0.1080951 -0.047835343 0.15669604 -0.0042979578 0.046041243 -0.007674351 -0.02343589 0.07337762 0.0054486687 0.0034518703 0.05263019 -0.020461367 0.14848784 0.08183074 -0.103403494 -0.043682206 0.08274631 -0.12195357 0.11708679 0.101775385 -0.008110822 0.12578174 0.09657252 -0.25304005 -0.11813036 0.05668543 -0.020300822 -0.11282699 0.05930102 0.116100505 0.11978602 0.24653561 -0.14771217 0.017611336 -0.07839105 0.028515212 -0.22251396 0.039316546 -0.06741862 -0.02323419 0.03850203 0.06863193 0.017714987 -0.032729454 0.14762227 -0.05101904 0.17105855 0.06342109 -0.05291167 0.053000055 -0.125561 -0.010982793 -0.048221424 0.013954163 0.027985632
28 -0.019090185 -0.009256982 0.20213121 -0.035259392 0.05262666 -0.17896499 0.029143417 0.041893248 0.033504855 0.08363324 0.25938046 -0.081336886 0.054175094 -0.14666598 -0.024639739 -0.07004787 0.11392172 0.19171964 0.06620421 0.20970689 0.13579345 0.12688348 -0.016772902 0.046910603 -0.1991512 0.09221435 -0.18312818 0.021315312 0.04486466 -0.04508841 -0.2232995 0.11670589 -0.08961419 0.035884295 -0.009196379 0.09220622 0.31547758 0.1314785 0.24578713 -0.12300975 -0.09401291 0.1925676 -0.095066585 -0.07345133 0.17307614 0.033228517 0.03384004 -0.14856884 -0.054949928 0.15687507 0.05377163 0.068939164 0.20035332 0.111964375 0.2677301 0.018803349 0.11479244 0.027548559 -0.114585586 -0.04933323 0.11664077 -0.1395713 0.09495612 -0.060634516 0.21639189 -0.115828454 0.071130045 0.101403505 0.095466845 -0.08687413 0.15092228 0.052465357 -0.1612934 -0.047822073 -0.05866068 -0.048341095 0.07696355 0.032880235 -0.027777629 0.30071837 -0.052032854 -0.12133643 0.06570863 0.25288776 0.058258243 0.10285221 0.270482 -0.19580203 0.1426944 0.19833724 -0.08702801 -0.09119166 -0.17160295 0.013723785 0.28473496 0.06355675 -0.3508984 -0.2969137 0.10902463 -0.09792994 -0.3424881 -0.0667482 0.047168903 0.002150182 0.00075880514 0.0062113334 -0.02305025 -0.14234062 -0.078783095 -0.16660987 0.049404655 -0.0484463 0.029707914 0.07721467 -0.103362575 -0.1058569 0.031144079 0.1781849 -0.0032900688 0.18905666 -0.041771572 -0.085942745 0.014455138 -0.09656887 -0.021851804 -0.15905945 -0.06771882 0.17715253
14 -0.026735896 -0.05909383 0.022106454 -0.096981235 -0.090332076 -0.15253848 0.007898699 0.12831447 -0.18050402 -0.0676411 0.2415185 0.013413029 -0.18544011 -0.05611551 0.06680999 -0.184708 0.12039174 0.0347758 -0.15623084 -0.24108991 0.069075376 -0.04100972 0.123547055 0.16527355 0.14803545 0.047612555 0.019573279 0.0535185 0.042498562 -0.20602666 -0.23358606 -9.793113e-05 0.11689143 -0.1467555 -0.068992525 0.07279347 0.19607136 0.059594654 0.079903394 -0.08185951 0.07823237 0.09287781 -0.17307451 -0.03270527 -0.0075243753 0.036870744 -0.039814085 -0.019107487 0.12993313 0.049673006 -0.047613144 0.02351441 0.11285928 0.08727621 0.25823402 0.024074782 0.07175389 -0.14864372 -0.017397517 0.072919175 0.15871522 0.020517932 -0.044016164 0.007863796 -0.0072177905 0.06241117 0.11301095 0.087516874 -0.116520226 -0.11984914 0.1358881 -0.014782793 0.045835648 -0.15281524 -0.031009324 0.14884423 0.0040006586 0.035416916 0.006688574 -0.026434192 0.03208203 -0.026576698 0.022952802 0.069382794 -0.011973889 0.107953794 0.060337618 -0.10009328 -0.025183907 0.060271747 -0.10253461 0.111977994 0.101900734 0.007927757 0.08956922 0.062878564 -0.2320022 -0.13990851 0.0683547 -0.017555961 -0.13678724 0.06788412 0.11750834 0.08788332 0.26687673 -0.15762348 0.008364127 -0.115165085 0.05391979 -0.20262791 0.034987755 -0.04530586 -0.0060000136 0.0151251415 0.097787105 0.02046759 -0.06226988 0.14837833 -0.017885188 0.13105756 0.027000446 -0.051700067 0.053749837 -0.11492377 -0.052373312 -0.050367016 0.014822946 -0.017367406
30 0.052352935 -0.02647448 0.12950617 -0.07258216 0.106528 -0.11992997 -0.012864902 0.1416419 0.06685139 0.09309682 0.26830977 -0.04474928 -0.04672616 -0.07458601 -0.12868461 -0.0998985 -0.06935329 0.13752332 -0.15670374 0.026120298 0.17937982 0.0003997085 0.10682674 0.04100708 -0.15548807 0.058936574 -0.099195406 0.09628046 -0.0011766487 0.036650922 -0.19163565 0.030584954 0.021320662 -0.033908382 -0.10124018 -0.060835212 0.117178485 0.11479618 0.2774674 -0.08584303 -0.1093911 0.17781664 -0.26909247 -0.1856148 0.050836504 0.00863844 0.0840795 -0.0052117617 -0.09607242 0.17016317 -0.026442263 0.07136466 0.1524974 0.096155554 0.15399155 0.02542963 0.24881046 -0.08773406 -0.057560243 0.026521116 0.124854796 -0.056662872 -0.006208869 -0.055994898 0.15570405 -0.12840433 0.06721388 0.18241625 0.001105058 -0.00646106 0.042074546 0.1325718 0.043803677 -0.076263174 -0.106867395 -0.11633874 0.041871417 0.18936673 -0.07084235 0.25490734 -0.056304973 -0.15772438 0.002401722 0.14595948 0.034719437 0.0720968 0.28200242 -0.17270645 0.104728356 0.2245955 -0.04865513 -0.0734243 -0.1630481 -0.07582645 0.062985286 -0.15486148 -0.22378989 -0.3276851 0.033259995 -0.10540504 -0.32831258 -0.059186917 -0.051214177 -0.037899613 -0.04730337 -0.09368636 -0.08856352 -0.13862987 -0.03445396 -0.08957466 -0.0021462599 -0.09465029 -0.014916613 0.115704395 -0.094326034 -0.050368927 -0.089844584 0.26431194 0.10515156 0.17769812 -0.13891193 -0.14705575 0.10297421 -0.00687064 -0.084451936 -0.08527304 -0.087410375 0.03391427
32 0.08600714 0.073849045 0.09611979 -0.10643325 -0.0820228 -0.16312109 -0.004573701 0.15093446 -0.060341746 -0.00032267295 0.17006364 -0.048799742 -0.092436835 0.09653342 0.16153559 -0.054935828 -0.085413285 0.16733356 -0.16589184 0.058748856 0.1656983 0.060048345 0.06906995 0.086931884 -0.16756 0.023339357 -0.07694169 0.10595213 -0.010902462 0.048147753 -0.29752937 -0.043969303 0.05299889 -0.051085934 -0.096310824 -0.017377896 0.19527845 0.1638696 0.16443339 -0.055514656 -0.12386683 0.17076068 -0.015210039 -0.06329151 -0.042506363 0.096482195 0.041088164 -0.14551611 0.067420885 0.009579599 0.046892792 -0.018654944 0.13458697 0.10859736 0.25622907 0.1901725 0.13171522 -0.06761873 -0.13143261 -0.018529333 0.049197905 -0.036517516 -0.06962048 -0.03985198 0.14687449 0.0019342502 0.06593596 0.011342574 -0.051752124 -0.12986715 0.11113627 0.1041743 -0.10402942 -0.076694 -0.03367723 0.030464217 0.04264492 0.03543078 -0.05847965 0.15649958 0.13454957 -0.04791997 0.088187434 0.06264031 -0.014512213 0.017956378 0.14123237 -0.17191017 0.057590675 0.06055951 -0.12974094 -0.029507669 -0.07541827 0.0119777545 0.20834897 0.0691601 -0.32338807 -0.19103833 0.10601585 -0.15274107 -0.26101387 -0.010169826 0.21163177 0.044989053 -0.073237166 0.011582937 0.10313383 -0.10435562 -0.102230124 -0.17173493 0.045032 0.02314392 -0.031587414 0.13921799 0.08964796 0.01965744 -0.06883082 0.122091666 0.12425322 0.14743777 -0.0014836498 -0.04249524 0.037171565 -0.00039881404 0.025819547 -0.16803692 -0.05519125 -0.021645287
25 -0.03331178 0.07004947 0.21886778 0.008149847 -0.04343548 -0.19576879 0.059717353 0.0046936874 0.0064535313 0.07665564 0.20800929 -0.06819489 0.10987576 -0.12557875 0.054107703 -0.0074613076 0.16812308 0.19686842 0.09339819 0.24419901 0.08845804 0.2333589 -0.03160034 0.030877117 -0.20401323 0.058696736 -0.20056227 0.0062855887 0.01464029 -0.059887394 -0.25247338 0.10553995 -0.1457387 0.042512354 0.006589923 0.14064601 0.3978906 0.11341052 0.21098529 -0.11446268 -0.10042583 0.15293418 0.045209616 -0.018343477 0.17303376 0.08812433 -0.003774361 -0.21686216 -0.030945493 0.12365145 0.1001287 0.06586115 0.18937947 0.079641044 0.31338322 0.04498395 0.05912303 0.08183421 -0.15134715 -0.06396632 0.05668626 -0.14550963 0.095823504 -0.041959718 0.24597807 -0.12065742 0.06769542 0.026444076 0.10664042 -0.15249719 0.20805997 0.08672957 -0.28808835 -0.038628966 -0.022414958 -0.029385481 0.12215931 -0.05023406 -0.020148925 0.30132952 0.017629767 -0.049543187 0.119459115 0.30041334 0.04130218 0.14259817 0.25291717 -0.20222855 0.15043777 0.1791614 -0.12921612 -0.1119339 -0.13787365 0.061540026 0.40192226 0.20091365 -0.4208892 -0.2873432 0.16608977 -0.11124752 -0.33603525 -0.060512595 0.19020976 0.075223915 -0.008618168 0.016827444 0.06771918 -0.10004205 -0.107042186 -0.19917189 0.07156475 -0.010233185 0.03258062 0.13094145 -0.08568529 -0.08152199 0.084678054 0.13977847 -0.035052594 0.18261348 0.029456047 -0.05917275 -0.007419916 -0.13784218 0.056819938 -0.21527223 -0.09377591 0.20950142
24 0.049190998 -0.057636052 0.20490196 -0.0771926 0.030364195 -0.21182014 -0.009495034 0.09540446 0.05448954 0.04642076 0.286612 -0.023966718 0.03037849 -0.07209162 -0.08147193 -0.094242215 -0.0070271185 0.18443277 -0.077223346 0.052936472 0.18971482 0.073337704 0.09166543 0.0028183546 -0.13621618 0.08048135 -0.11843722 0.08262062 0.008927797 -0.008544404 -0.23124817 0.031988285 0.012315346 0.04943932 -0.058112033 0.015150789 0.17558318 0.087866835 0.19376437 -0.05126432 -0.10328115 0.17468823 -0.1592568 -0.11537608 0.07626657 0.010535553 0.0752854 -0.10131388 -0.050511036 0.12924513 0.029488832 0.058861326 0.089510724 0.09656638 0.1774658 0.027887233 0.17961699 -0.088935286 -0.09559393 -0.0046028504 0.15161757 -0.08411474 0.028970506 -0.07607494 0.15717834 -0.119134046 0.07045982 0.1235688 0.06010247 -0.06138572 0.09186854 0.061918095 -0.08377228 -0.1021553 -0.044807374 -0.083726004 0.09852899 0.077516876 -0.064453155 0.2132569 -0.05009211 -0.08974831 0.08882621 0.18600684 0.034567382 0.09057241 0.21873935 -0.22200108 0.09678919 0.2148039 -0.09629602 -0.054411497 -0.14809696 -0.0049725673 0.17601398 -0.002635224 -0.2593845 -0.33304968 0.079158604 -0.09619892 -0.29830688 -0.055271875 0.06752552 -0.05307112 -0.054086868 -0.047836516 -0.07693727 -0.121325515 -0.033568844 -0.07760931 -0.0044344026 -0.044254787 0.019088792 0.12343084 -0.08319537 -0.031499475 -0.04132445 0.15783812 0.049564883 0.12806226 -0.09532959 -0.103945486 0.026441095 -0.031693123 -0.03883094 -0.12032944 -0.14303721 0.09924476
20 0.03326251 -0.007888451 0.032575164 -0.00798257 0.004408197 -0.06309941 0.0153982155 0.13397546 -0.059627585 0.048785325 0.15294091 -0.11126929 -0.10723814 -0.05635577 -0.025632648 -0.11501086 0.04357121 0.0666221 -0.16334459 -0.09496509 0.10344531 0.050843995 0.09036764 0.13682672 -0.043114718 -0.010310984 -0.033701457 0.057486173 -0.025850032 -0.053806618 -0.18798757 0.021843616 0.04887242 -0.12393817 -0.14585456 -0.029569915 0.2020901 0.075670816 0.1841164 -0.110897444 -0.029785706 0.07039329 -0.1718597 -0.09402335 -0.030541655 -0.008887058 -0.0072354246 0.022854209 0.019154686 0.1256887 -0.06726977 0.02745631 0.17014645 0.08348566 0.17631753 0.008077301 0.16902572 -0.10533837 -0.07115577 0.104597956 0.10279588 -0.011306882 -0.032819208 -0.06995241 0.10031334 -0.05611642 0.010296759 0.089753725 -0.08566057 -0.07673084 0.13531084 0.12536602 0.0026328198 -0.036887705 -0.07462327 -0.05627304 -0.010606406 0.073727824 -0.016614785 0.15802447 0.0021365732 -0.095768645 -0.024239462 0.08310592 -0.03455812 0.12827341 0.2105098 -0.073409334 0.065374464 0.1542836 -0.025896871 0.013169912 0.009901228 -0.020035004 0.09722028 -0.015062401 -0.2429556 -0.20583245 -0.04391791 -0.013771073 -0.20576577 -0.003425319 -0.0047566066 0.07123677 0.08615965 -0.14924495 -0.011567741 -0.0747128 -0.03533466 -0.11225388 0.026354343 -0.11900687 0.012585607 0.14474261 -0.025124278 -0.0041678012 -0.044518273 0.24730352 0.043609276 0.13678136 -0.048258178 -0.14817572 0.083090425 -0.059845913 0.00841114 -0.074122615 -0.01506896 0.058283184
5 0.0030700122 0.06477267 -0.12939057 0.12231027 -0.1440931 0.052174963 0.06068666 0.12693708 -0.19016254 0.0023320632 0.0048477957 -0.20965981 -0.16558331 -0.019183807 0.07436828 -0.1173287 0.11418095 -0.09269784 -0.26948985 -0.27115783 -0.008179639 0.108615175 0.046077497 0.2209349 0.038670424 -0.10878042 0.04872233 0.020938767 -0.0796695 -0.1193424 -0.16951123 -0.016714446 0.028729672 -0.2647523 -0.24005984 0.02039226 0.29587847 0.028600698 0.1256298 -0.13674036 0.013003299 -0.041131858 -0.034655746 -0.01976563 -0.16975866 -0.053071562 -0.12720709 0.101624906 0.17654392 0.08632434 -0.086933635 -0.0508711 0.20032337 0.017117206 0.17764346 -0.011991908 0.1664984 -0.17215718 -0.10964545 0.22589457 0.05906514 0.02566253 -0.16450502 -0.14838818 0.09788016 0.007982248 -0.064941086 0.0033380054 -0.22554033 -0.19454888 0.26791254 0.14467852 -0.09549324 -0.013446719 -0.013859716 -0.071504526 -0.015413022 -0.07245245 0.1006614 0.12144195 0.0715155 -0.087143384 -0.039041985 0.059864644 -0.18498287 0.20488776 0.18690836 0.06290245 0.087712124 0.06835934 0.064291604 0.10220783 0.22686987 0.061726104 0.12912633 0.10335439 -0.32142144 -0.13248709 -0.20917957 0.100139424 -0.13884975 0.056314293 0.055972166 0.24488074 0.24233395 -0.26622015 0.11146851 -0.05398189 -0.056911714 -0.10348805 0.07975848 -0.17959209 0.09255016 0.23621142 0.0810591 0.08832315 -0.04437341 0.32928377 0.027510969 0.041247163 0.04931628 -0.16901326 0.102737956 -0.096493766 0.11717335 -0.072072886 0.06821152 0.05002007
9 0.043630652 -0.08376276 0.1162668 -0.12256556 -0.070964165 -0.23271441 -0.042245317 0.110308215 -0.046306353 -0.059179075 0.2695827 0.07227553 -0.064035736 0.008386564 0.029529855 -0.10776815 0.018745298 0.076765336 -0.18763494 -0.18199153 0.12850466 0.0059004384 0.18635902 0.06057294 0.07299563 0.08455929 0.022958111 0.09214962 -0.0007680953 -0.12934592 -0.22830027 -0.08239835 0.14012477 0.0028531752 -0.12078797 0.055414066 0.1494247 0.015223704 0.10767279 -0.016968047 -0.019859362 0.10045225 -0.12680238 -0.10080524 -0.061674703 0.022415148 0.05040573 -0.060556103 0.10243692 0.013966787 0.0011825019 0.014645774 0.023537703 0.10847503 0.16183151 0.06394484 0.124973215 -0.18692034 -0.07147751 0.08204738 0.1629293 0.027946755 -0.061112087 -0.0155422 0.04647559 0.034943853 0.12627195 0.080971785 -0.0732256 -0.10491303 0.13120109 -0.011959945 0.0016602882 -0.19475068 0.0029165153 0.06697673 0.06287261 0.023330182 -0.050788946 0.007341896 0.039721467 -0.004828276 0.09694641 0.09855624 -0.0468731 0.109397694 0.019729346 -0.20563732 -0.060151402 0.08417669 -0.12873727 0.06636673 0.06879793 0.003599013 0.10459632 0.041836042 -0.21391547 -0.23010014 0.11057506 -0.06937976 -0.15873264 0.028090764 0.17863238 0.04176766 0.11560577 -0.14318256 -0.023001546 -0.07639585 0.084164865 -0.11317746 -0.033971313 0.005297801 0.006983696 0.09210968 0.07700476 0.044751085 -0.11747204 0.08893554 0.04560543 0.04354672 -0.040554646 -0.0732271 0.03043359 -0.042829793 -0.037779175 -0.0726814 -0.10436813 -0.03565162
7 0.023125103 0.082029894 -0.11185519 0.090170905 -0.14365506 0.08590179 0.049334615 0.11471487 -0.18425964 0.029651608 -0.023046792 -0.2074593 -0.20191452 0.0041742097 0.050951462 -0.09225103 0.08381114 -0.07376129 -0.26874867 -0.26297432 0.0029185885 0.12247485 0.06807378 0.23597914 0.027583975 -0.13127173 0.034272995 0.00867675 -0.10844051 -0.09571642 -0.15790345 -0.03037365 0.051649384 -0.30599096 -0.24556008 -0.023369964 0.3058733 0.032019027 0.14325865 -0.14684893 0.0079105785 -0.05196708 -0.08379479 -0.043006625 -0.17931047 -0.025877634 -0.108084254 0.09026607 0.1280636 0.09399044 -0.10810593 -0.0096511105 0.21666203 0.019696262 0.1843594 0.013114752 0.190944 -0.14221825 -0.09994908 0.23732314 0.046607777 0.036361575 -0.15188836 -0.11093453 0.08872297 -0.0047537056 -0.07065549 -0.0038911984 -0.23965855 -0.17898616 0.25538236 0.19240749 -0.05908858 0.015379372 -0.050799485 -0.076873735 -0.058363453 -0.022221021 0.0741402 0.12174154 0.10892921 -0.07268466 -0.049489833 0.050154567 -0.1717303 0.22202136 0.1963598 0.046276953 0.06720786 0.10018894 0.02228846 0.10783067 0.21510957 0.033283353 0.121477515 0.08296333 -0.30973762 -0.12137155 -0.20596045 0.07520002 -0.13294311 0.065686956 0.037270937 0.25230378 0.20653832 -0.2644435 0.11338421 -0.027569428 -0.07740315 -0.13062762 0.070185155 -0.19339785 0.04567738 0.25916055 0.05408351 0.07963373 -0.034811866 0.33736458 0.034013156 0.09633605 0.04126615 -0.19680215 0.10632607 -0.08907277 0.12063793 -0.08292914 0.041544575 0.0414824
29 0.08779782 0.11856478 0.10687646 -0.13409168 -0.13040616 -0.16962439 0.022437312 0.18311988 -0.11404106 -0.037417375 0.16240124 -0.0435536 -0.14367269 0.116351254 0.22329776 -0.085802995 -0.08473064 0.15905204 -0.20016074 -0.03526241 0.13912599 0.05495853 0.085803725 0.12950845 -0.10963622 -0.001406039 -0.021440594 0.16231632 -0.010750715 0.036965102 -0.34199283 -0.056860838 0.052699365 -0.10530052 -0.07575959 -0.03560317 0.16158924 0.18059683 0.1167676 -0.05611918 -0.08460452 0.12681046 -0.012403447 -0.0044151535 -0.04112549 0.1429519 0.032235064 -0.14437969 0.08876177 -0.03301548 0.0028700328 -0.029209588 0.101075284 0.090388104 0.3142571 0.19717374 0.08204404 -0.046472352 -0.1181936 -0.03306527 0.0066501335 0.0042867283 -0.070091955 0.0029482995 0.10475567 0.037221603 0.042881813 -0.034871295 -0.09238713 -0.14384961 0.11224817 0.13436435 -0.09359474 -0.07732672 -0.032496337 0.10212499 0.04400229 0.03936532 -0.048786312 0.06096126 0.19020012 0.011640763 0.08677083 0.0036585475 -0.007954368 0.011417249 0.09022537 -0.15625206 0.024714898 0.013713655 -0.16171983 0.0052090883 -0.016166091 0.021626614 0.19622388 0.110335216 -0.32543293 -0.1363831 0.12778227 -0.14438425 -0.22304724 0.02745051 0.25820482 0.097787865 -0.046945203 0.0021834245 0.12508361 -0.11493606 -0.108540714 -0.19805408 0.05078103 0.021761788 -0.07520942 0.142898 0.12657814 0.06695802 -0.055495244 0.099868305 0.10005727 0.16189446 0.059561 -0.006107445 0.053629015 0.0044440078 0.04036497 -0.16715583 -0.027493402 -0.055062775
6 -0.0051375935 0.057430368 -0.071807474 0.042984884 -0.16598286 -0.01834797 0.04726545 0.1482966 -0.23573811 -0.018840693 0.062013593 -0.13987505 -0.2157631 0.02901928 0.11909479 -0.13924831 0.12930052 -0.05946007 -0.2772503 -0.31024167 -0.0106056 0.090544924 0.08197367 0.23185757 0.11773624 -0.08599346 0.07942958 0.055459533 -0.10494928 -0.1616744 -0.19669738 -0.056023765 0.09814674 -0.26781994 -0.21769238 -0.0028076414 0.27415183 0.0016971173 0.07148694 -0.12186343 0.043445956 -0.037963662 -0.06372461 -0.0015729411 -0.18096772 -0.009648274 -0.11604289 0.08042488 0.19478478 0.04694691 -0.09506968 0.017936783 0.15564893 0.028201388 0.19158778 0.01575524 0.12852058 -0.16492942 -0.05621997 0.24664897 0.05896077 0.057511624 -0.14613205 -0.07788792 0.028770942 0.066728234 -0.031311654 -0.01417583 -0.24322335 -0.15449645 0.24454339 0.11707545 -0.04118503 -0.06559624 -0.00085060706 0.009938505 -0.036247507 -0.054012686 0.050740898 0.018357353 0.106314324 -0.03065942 -0.0031182508 0.033309206 -0.18282968 0.18758552 0.12227989 0.021714844 -0.008589291 0.05655578 -0.032887474 0.1293387 0.22648984 0.047541913 0.11049159 0.12456612 -0.31109485 -0.11917134 -0.143555 0.075137116 -0.11026467 0.08871489 0.11714623 0.26887304 0.2807731 -0.24271575 0.11769844 -0.062663734 -0.027234277 -0.14456543 0.07135721 -0.123986535 0.031785946 0.19899929 0.10717136 0.105189666 -0.06815028 0.24483393 0.00616367 0.06253882 0.05354957 -0.15093057 0.116678864 -0.098771535 0.11160055 -0.07339887 0.04738763 0.023287654
18 -0.09706145 -0.08386092 -0.031162014 -0.029590212 -0.059893254 -0.087133914 0.013525315 0.041067865 -0.22885773 -0.024837721 0.20853814 -0.022798637 -0.1486412 -0.13663399 0.04607651 -0.1754963 0.2850597 -0.036638193 -0.086147994 -0.28481868 -0.018525433 0.040571384 0.117873356 0.25680697 0.24778788 0.019979717 0.056847446 -0.026603343 -0.034014054 -0.33227018 -0.13913035 -0.009820289 0.1136598 -0.15407307 -0.13557433 0.10143959 0.28659406 -0.0011711072 0.076178 -0.14944786 0.13773784 -0.018810818 -0.1535944 -0.01582156 -0.03765363 -0.013772161 -0.06403809 0.07277768 0.17626466 0.101458974 -0.08965458 0.0676822 0.16074172 0.058111947 0.18899281 -0.04733429 0.04368067 -0.123264484 0.0013831792 0.18532848 0.16843078 0.046997033 -0.021895425 -0.036305647 0.036769476 0.054014996 0.089247495 0.06408551 -0.10915646 -0.1379858 0.23782305 -0.016868226 0.06499159 -0.12074013 -0.054205816 0.13468918 -0.015106886 -0.0046100714 0.031803817 0.032306846 0.001292154 -0.01591608 -0.064062536 0.14111711 -0.09366864 0.24269207 0.07309287 -0.09289754 -0.07794717 0.06013294 -0.059018638 0.13763775 0.20431267 0.00028766118 0.09671745 0.09689423 -0.2412242 -0.10266632 -0.0060561597 0.05459949 -0.10551005 0.035173047 0.06870548 0.1755604 0.3561427 -0.24026327 -0.0016002621 -0.04405002 0.09527214 -0.19871612 0.030607069 -0.11530266 0.03991878 0.027051948 0.0051202364 -0.03918377 -0.05897668 0.19089578 -0.11203339 0.107259125 -0.0016054829 -0.11512611 0.050617058 -0.21365078 -0.03432767 -0.012287375 0.021583047 0.07928758
22 -0.078944944 -0.090825394 0.009936769 -0.07444503 -0.023727475 -0.13561533 0.03059776 0.05460284 -0.22224806 -0.03877992 0.26657566 0.0009365103 -0.15356296 -0.15182944 0.058931403 -0.18403684 0.24789119 -0.00044714008 -0.055724733 -0.23400372 0.0246507 -0.0017678689 0.123130046 0.25674903 0.23350328 0.05914402 0.04143656 0.015711479 0.022384662 -0.30283958 -0.1737537 0.009569713 0.12215545 -0.137295 -0.096890904 0.07404105 0.24804918 0.047754273 0.09517826 -0.14567254 0.1437569 0.035969358 -0.19103147 -0.015351269 0.019875683 0.027351335 -0.03722254 0.037149306 0.1486064 0.098426886 -0.07668972 0.062447432 0.15317462 0.07517756 0.21578982 -0.027528798 0.038414758 -0.10930069 0.0072727487 0.10950652 0.17582878 0.03356444 0.011701019 -0.005327896 0.02335491 0.02812466 0.12526712 0.08270732 -0.05907636 -0.10354958 0.19377221 -0.021749357 0.08484888 -0.1370387 -0.087249376 0.18432271 -0.0066126687 0.050023675 0.0034462656 0.040534325 -0.008063993 -0.019536775 -0.05841285 0.13560988 -0.0247042 0.20886795 0.06821347 -0.14148818 -0.0680078 0.07305291 -0.09950717 0.10749752 0.12937044 -0.014755892 0.08498317 0.050527368 -0.2280853 -0.10743172 0.066041626 0.01610526 -0.13693734 0.031083811 0.06660319 0.11900682 0.3174273 -0.19513607 -0.012076793 -0.080007486 0.093686216 -0.23140287 0.039399527 -0.09585877 -0.0013495301 -0.029194664 0.013720783 -0.06801935 -0.054586366 0.17754628 -0.10170405 0.14878571 -0.013752698 -0.082142636 0.04144941 -0.19570896 -0.08993248 -0.027922556 -0.0014648202 0.05342447
27 0.111667044 -0.09132802 0.14864628 -0.08889437 0.11448965 -0.1408718 0.027516574 0.16151148 0.011350403 0.031138154 0.290785 -0.083948396 -0.106260136 -0.074287914 -0.10292293 -0.1624318 -0.1327721 0.17131598 -0.16218914 -0.03831363 0.24147876 -0.00851533 0.11684328 0.07439385 -0.13026524 0.05946864 -0.061792187 0.16974181 0.028455716 0.05936876 -0.2536933 0.026428627 0.10639045 -0.068364754 -0.09429527 -0.1324314 0.067093775 0.17900865 0.24531275 -0.07627108 -0.07548327 0.16922253 -0.33447927 -0.13557589 0.080800086 0.029264567 0.107654825 -0.029603554 -0.10025318 0.17564948 -0.07328133 0.057614353 0.13255459 0.1298491 0.1782598 0.009480507 0.25158796 -0.15881923 -0.06741307 -0.013926935 0.18853745 -0.07077331 0.03968019 -0.057674766 0.069527 -0.14757809 0.032041125 0.1969752 -0.008572094 0.01673853 0.03566616 0.13782299 0.07478198 -0.04087605 -0.12901147 -0.052675556 -0.0004133782 0.21862154 -0.074754424 0.19802885 -0.047708303 -0.13419598 -0.01411928 0.07691917 0.073194 0.05956241 0.27152306 -0.19291134 0.1263317 0.2369515 -0.077862255 -0.015905034 -0.16673823 -0.060323983 0.033248752 -0.13584688 -0.18804447 -0.2959797 0.004001878 -0.10024377 -0.2844299 -0.04680147 -0.058952983 -0.10782449 -0.09036939 -0.0751299 -0.09642189 -0.14180341 -0.051084176 -0.08082592 0.0027125417 -0.09915471 -0.043262884 0.10366654 -0.071136944 -0.043979377 -0.06344979 0.25168148 0.08280416 0.2126223 -0.12503116 -0.10815682 0.07674229 0.044295814 -0.094450146 -0.10283589 -0.0926047 0.046503175
31 0.052234475 -0.12377322 0.1666146 -0.114552066 -0.030814134 -0.2784391 -0.05283804 0.099690735 0.019808043 -0.02370247 0.32817814 0.07594875 0.013629299 -0.008892726 -0.06809857 -0.10094186 0.017887952 0.11895477 -0.17068239 -0.13202839 0.20662539 0.027898869 0.22287184 0.0040704086 0.02035199 0.10971459 -0.033058938 0.09150468 -0.0054357834 -0.12115538 -0.24781156 -0.062646344 0.11911209 0.0917629 -0.124321096 0.05509477 0.12585048 0.00061901764 0.115229525 -0.004648978 -0.07073597 0.13703012 -0.14449978 -0.1521141 -0.03579249 -0.019528683 0.06966231 -0.05539688 0.058633532 0.07697333 0.018995373 0.015788997 -0.011849498 0.10183663 0.09598659 0.030455887 0.15424204 -0.20495035 -0.08331955 0.06864234 0.19606443 0.00022959351 -0.04484052 -0.08620407 0.0884024 -0.02890449 0.12818137 0.119200364 0.004719948 -0.08148566 0.097045 -0.023722759 -0.012812128 -0.20712698 0.008556392 -0.01453342 0.11209568 0.024673846 -0.07968111 0.066369005 -0.037010413 -0.02277557 0.09627238 0.14492618 -0.028141165 0.08112756 0.05705639 -0.23617287 -0.021389585 0.12568237 -0.088080116 -0.0044974606 -0.010255754 -0.009907492 0.10680215 0.0048264954 -0.1782984 -0.29823065 0.08947872 -0.060076877 -0.18947776 -0.020295894 0.14171802 -0.037997402 0.040974863 -0.12651406 -0.08579173 -0.063124634 0.08761965 -0.0407317 -0.07482293 -0.013038116 0.048807796 0.0835225 -0.003998875 0.031780805 -0.1082306 0.09825569 0.059050564 -0.004379197 -0.10311431 -0.07811638 0.0029744417 -0.033012133 -0.05437458 -0.044586927 -0.17691778 0.013636716
21 0.064011306 -0.09151875 0.19858336 -0.08334126 -0.0001673584 -0.27422705 -0.030306803 0.111746944 0.073787525 0.010915192 0.3216496 0.03696424 0.06668868 -0.032228626 -0.071193404 -0.07015085 0.0043765693 0.13865514 -0.15367778 -0.038929686 0.20235822 0.077766605 0.16639076 -0.024137152 -0.079707295 0.1124514 -0.06369049 0.10483763 -0.014392065 -0.04747921 -0.26263025 -0.04961756 0.05655794 0.13020137 -0.10864037 0.04582261 0.1297048 0.006955339 0.16146952 -0.0074151494 -0.10782027 0.13575497 -0.120516405 -0.13674407 0.0011862346 -0.022336917 0.0819516 -0.07432043 -0.0021200534 0.07124249 0.032193873 0.020007305 0.009184569 0.1055165 0.1061372 0.013342142 0.17954718 -0.15648183 -0.106389396 0.041867156 0.1527988 -0.03828328 -0.020768933 -0.08760999 0.12601884 -0.0724156 0.08716661 0.1158456 0.018799718 -0.07535986 0.10365226 0.004043736 -0.080553256 -0.17535196 0.006307259 -0.08601168 0.12621936 0.009942467 -0.07961424 0.12851462 -0.052878648 -0.051544666 0.12497019 0.18594699 -0.025482925 0.07806693 0.10789012 -0.22837918 0.039162975 0.17100425 -0.091582716 -0.043988056 -0.06609584 0.009297533 0.14625974 0.0035755641 -0.22230098 -0.33633074 0.09482093 -0.08089524 -0.24247852 -0.05121417 0.12735388 -0.039122414 -0.026417477 -0.09997432 -0.08359741 -0.08197126 0.04931517 -0.023462715 -0.06009273 -0.00068681256 0.049875867 0.1319806 -0.039155178 0.03400661 -0.097154625 0.1087411 0.07410492 0.0048762485 -0.11224504 -0.105563015 0.018028615 0.00062219595 -0.03900839 -0.09934384 -0.17503165 0.05186936
16 0.0858531 -0.1009216 0.15053569 -0.06951105 -0.059637863 -0.2767211 -0.06398957 0.12070619 0.06358397 -0.009361448 0.29085967 0.036069952 0.061134264 0.055277135 -0.05778102 -0.06699354 -0.048316933 0.11046961 -0.23935284 -0.08711722 0.22904754 0.06076974 0.20822582 -0.03977618 -0.07791384 0.101446114 -0.04868598 0.107220024 -0.045426235 -0.059520483 -0.2747068 -0.103277735 0.099959165 0.13434464 -0.15629731 0.062388837 0.12283549 -0.0174944 0.13195917 0.033772547 -0.14808117 0.15536822 -0.07610833 -0.16814126 -0.09719848 -0.04311228 0.07673285 -0.05558901 0.07431371 0.051048618 0.053437233 -0.012568519 -0.017587326 0.09311977 0.05480177 0.0639032 0.20368679 -0.23077554 -0.13107489 0.09444425 0.17243692 -0.02072594 -0.09182674 -0.12727974 0.13816705 -0.025973154 0.09595811 0.093916014 -0.01350708 -0.11501529 0.10385432 -0.02738738 -0.09055027 -0.21060005 0.059384383 -0.1170127 0.14885163 -0.038257137 -0.0728849 0.10843406 -0.019508544 -0.04637214 0.14178325 0.15168002 -0.08279753 0.054655917 0.07571312 -0.21395282 0.023232765 0.12018535 -0.04585947 -0.032299545 -0.008369716 0.02595306 0.13565803 0.017630791 -0.23174399 -0.35461685 0.047333304 -0.068842486 -0.22971505 -0.043137353 0.18062963 -0.027024081 -0.026524264 -0.11264968 -0.06603966 -0.063387476 0.06465666 0.017858403 -0.08431035 0.0039280383 0.09659183 0.15074705 0.016085505 0.08124778 -0.12562187 0.10448911 0.12586752 -0.06856776 -0.11783822 -0.09891949 0.0034563162 0.027370375 -0.01046494 -0.07782913 -0.18862043 -0.0008889228
11 -0.0016364654 0.016543679 -0.0926108 0.04212341 -0.143445 0.019549502 0.03646919 0.09125271 -0.21124846 -0.020758374 0.0487216 -0.12792346 -0.20338406 -0.02363472 0.08556541 -0.116471745 0.13615248 -0.066934004 -0.21317913 -0.25920388 0.015113976 0.07039935 0.09066003 0.24172407 0.09023608 -0.074703544 0.031644866 -0.008285283 -0.058956772 -0.1834865 -0.15827997 -0.03157294 0.08144346 -0.25138623 -0.21065831 0.035583448 0.3110705 0.033573274 0.13002922 -0.13604674 0.04948987 -0.0032738568 -0.078585446 -0.03991886 -0.13193944 -0.019063277 -0.08580762 0.06503386 0.17487745 0.08000144 -0.07744609 -0.027779063 0.20440954 0.042372853 0.20079638 0.031465746 0.13159585 -0.1522207 -0.083358236 0.20214823 0.106690496 0.03306478 -0.1374353 -0.07709544 0.06983241 0.02708146 0.00054313074 0.015783377 -0.19437724 -0.19011605 0.2567555 0.09415543 -0.024457525 -0.047470458 -0.041951593 0.021342127 -0.03875233 -0.041018013 0.07888573 0.094794475 0.095544435 -0.06368047 -0.042696465 0.07568466 -0.1439747 0.20699011 0.13217066 -0.00028039468 0.035309475 0.05636832 0.0022626189 0.118290275 0.2169228 0.02757818 0.123234525 0.09325987 -0.28641582 -0.099988185 -0.12234152 0.05864973 -0.1241506 0.06704723 0.07916147 0.20753594 0.24114148 -0.2281955 0.09977527 -0.028527763 -0.01212186 -0.16242099 0.056392506 -0.14614895 0.049325645 0.16052324 0.07533014 0.03134403 -0.038949706 0.2762437 0.011576431 0.08045317 0.030691186 -0.14204895 0.06370395 -0.12573588 0.050723393 -0.054154202 0.044362135 0.01278001
10 0.058965746 -0.019837677 0.07378372 -0.097885944 -0.0832555 -0.18011378 -0.0017514105 0.14543262 -0.08331024 -0.04705123 0.2248963 0.013872089 -0.12142021 0.023617527 0.09277288 -0.0895193 -0.002831469 0.0847016 -0.17835034 -0.15457787 0.11490622 0.03765275 0.14238928 0.1014261 0.02857866 0.028525433 0.011916516 0.12051452 -0.0081591 -0.06354245 -0.25930074 -0.07269902 0.12328047 -0.07255704 -0.10309206 5.0888397e-05 0.15809774 0.061290193 0.12500004 -0.049234793 -0.023186626 0.07240187 -0.11079189 -0.0680587 -0.040460944 0.05544449 0.033886716 -0.07433114 0.07840479 0.018906701 -0.022689223 -0.003426007 0.06805824 0.11088206 0.23707554 0.075090244 0.12002269 -0.13530193 -0.09020489 0.059175394 0.09469495 0.017264156 -0.047698542 -0.003830622 0.038289174 0.027779851 0.083407216 0.0599493 -0.11102759 -0.09895588 0.1359401 0.065832004 -0.011386306 -0.11943364 -0.027917897 0.06647144 0.021989604 0.034959476 -0.04380377 0.014938992 0.09267952 -0.0037488856 0.056699272 0.063612774 -0.017012956 0.096165806 0.060602814 -0.15430501 -0.016224915 0.087053925 -0.13768572 0.05527434 0.054270096 0.005862563 0.1355885 0.06818967 -0.2293025 -0.16866784 0.10068434 -0.07695961 -0.15781204 0.03245009 0.16774681 0.065181114 0.06609544 -0.11343056 0.04063435 -0.06376174 -0.0053130933 -0.16439664 0.005877473 -0.0015833993 -0.044999868 0.12881401 0.091496676 0.052924626 -0.07340149 0.11216971 0.04686919 0.10809371 -0.0051475796 -0.06252442 0.04905655 -0.027722253 0.00910207 -0.11153454 -0.048671395 -0.029495018
8 -0.025333224 -0.00286674 0.003033368 -0.06023127 -0.10623216 -0.09250116 0.010047031 0.11106629 -0.19494145 -0.035825673 0.16326879 -0.024788385 -0.1906491 -0.023562191 0.07330263 -0.147768 0.13200714 0.016626576 -0.17424205 -0.23745488 0.02564087 0.012720241 0.11176172 0.19001426 0.13605788 -0.0113939885 0.035761524 0.03862674 -0.03110377 -0.19283547 -0.17662431 -0.02647242 0.099887565 -0.17960209 -0.12469971 0.043274976 0.225918 0.031774376 0.07297127 -0.09331795 0.059682958 0.043955427 -0.11891677 -0.031416725 -0.08559725 0.030434495 -0.03979951 0.0144927995 0.13947536 0.037056662 -0.050844245 0.023466732 0.13496485 0.05452718 0.2475683 0.026876839 0.09330839 -0.1437138 -0.028504774 0.12483326 0.13504325 0.04107819 -0.08622932 -0.026018504 0.03765923 0.04910095 0.06442052 0.052147448 -0.14264399 -0.14158551 0.17767498 0.045514345 0.022049641 -0.11981669 -0.031740844 0.10514179 -0.0021700617 0.015713546 0.0026508921 0.001733861 0.0710864 -0.013788356 0.003711532 0.04968031 -0.065535754 0.16116321 0.08303172 -0.08911487 -0.042111494 0.0698797 -0.079317465 0.11482067 0.13948224 0.006421747 0.10640652 0.0817918 -0.25075635 -0.13403697 0.020115478 -0.0024541933 -0.120480485 0.05609231 0.11892426 0.1357071 0.24010605 -0.17756101 0.02668624 -0.062882505 0.02763034 -0.18688057 0.04256725 -0.080281265 0.0071829166 0.078754835 0.09324278 0.02798161 -0.058628827 0.17109497 -0.02018857 0.10059131 0.030839931 -0.08015664 0.062339265 -0.13029453 -0.0006447787 -0.047979027 0.017715864 -0.00057011924
26 -0.007577211 0.08655875 0.21087839 -0.038633604 -0.04301215 -0.19237746 0.048249282 0.038087532 0.0009036219 0.06930641 0.19615145 -0.058794606 0.06756109 -0.0768382 0.09990464 -0.015270674 0.11894045 0.19611914 0.061189137 0.23178473 0.091312304 0.19057506 -0.03927516 0.046454623 -0.20344591 0.058399927 -0.17058817 0.038189713 0.028774269 -0.021708218 -0.25583917 0.08630867 -0.11506018 0.027578507 -0.003761952 0.11091349 0.3550112 0.1258712 0.19470243 -0.09778151 -0.10859221 0.15030965 0.041021638 -0.009932383 0.14122489 0.0869356 0.007819958 -0.20911962 -0.01594601 0.08067406 0.08766088 0.042570088 0.17666982 0.08246443 0.31932372 0.0877364 0.06138123 0.07384162 -0.14300275 -0.066418536 0.031180535 -0.11897299 0.06469641 -0.030871565 0.23643444 -0.08153905 0.07029832 0.008556073 0.06344286 -0.1536324 0.20035875 0.09476044 -0.26072532 -0.047525868 -0.021371892 -0.007665974 0.1046223 -0.03797111 -0.015239123 0.26070103 0.043268155 -0.05956374 0.11344903 0.24773252 0.023248466 0.113168985 0.22393544 -0.20194697 0.13299416 0.15145503 -0.14042065 -0.09100039 -0.11733795 0.055142816 0.37216777 0.18549353 -0.41848728 -0.26815367 0.17038134 -0.123482846 -0.3283354 -0.03976671 0.19101274 0.075484775 -0.022257593 0.02977399 0.07658629 -0.12972134 -0.12145981 -0.1977973 0.07302116 -0.0014316051 0.0075705755 0.13132922 -0.044217832 -0.06075326 0.049139086 0.12767486 -0.007047639 0.18258594 0.035939366 -0.06145117 0.0019757783 -0.10040953 0.041216973 -0.21255808 -0.07963138 0.16449717
19 0.08635362 -0.118712984 0.16568586 -0.10409333 -0.058358222 -0.28665334 -0.08359606 0.13290726 0.07593033 -0.02133323 0.3012503 0.080013424 0.046817154 0.07333924 -0.07429212 -0.072692394 -0.052130297 0.12303916 -0.2639964 -0.13525254 0.21771343 0.050496466 0.24960555 -0.051684737 -0.032308657 0.104664885 -0.018761987 0.10673736 -0.050540734 -0.06042694 -0.25865403 -0.12392101 0.126576 0.14832531 -0.17508988 0.05166929 0.10480053 -0.05333719 0.11943906 0.04383909 -0.14304145 0.14539993 -0.09211415 -0.19404033 -0.12555128 -0.05700321 0.084208496 -0.058506563 0.08610742 0.023737643 0.049454723 -0.010027061 -0.044602737 0.11102064 0.044311024 0.06556013 0.20465247 -0.25193742 -0.11700644 0.11258972 0.18716817 0.00091419846 -0.106507555 -0.115710825 0.112338826 -0.007384401 0.103655085 0.10786425 -0.0368004 -0.103126146 0.103670575 -0.03408601 -0.060316052 -0.23042727 0.061790936 -0.10874337 0.13963306 -0.030964164 -0.08720592 0.064546 -0.010022308 -0.032312896 0.1525969 0.14377785 -0.08813091 0.05830007 0.045590453 -0.22551994 -0.018289048 0.12987746 -0.059350174 -0.009966467 0.009802759 0.008691744 0.120456144 0.00539849 -0.20120813 -0.35166192 0.06362102 -0.07616686 -0.19296636 -0.029838264 0.18085195 -0.025967423 -0.012181547 -0.12701984 -0.08322351 -0.048621666 0.09042584 0.022300148 -0.08902827 0.015916333 0.08107704 0.16802555 0.031247271 0.09252253 -0.14618853 0.07387271 0.13043801 -0.09024391 -0.12872173 -0.10321716 0.016752664 0.029395273 -0.015979238 -0.06423468 -0.20613794 -0.025945697
15 0.10114083 -0.03760829 0.119780116 -0.05882162 0.025649492 -0.15358031 -0.01437628 0.15824182 0.02829492 0.04175181 0.22758348 -0.07279116 -0.041912433 0.027380757 -0.033561517 -0.08262124 -0.11458726 0.14940497 -0.19361582 0.010083771 0.21904437 0.035836887 0.10563853 0.032735415 -0.17233503 0.035008535 -0.0794681 0.122548364 -0.020285303 0.056708757 -0.2518918 -0.023483943 0.08011419 -0.006904597 -0.12590705 -0.06457163 0.13475786 0.10709422 0.22750266 -0.052920602 -0.132847 0.1671971 -0.17211333 -0.15248843 -0.03165082 0.012002336 0.08011504 -0.070438795 -0.012050934 0.09752226 0.004807354 0.012667853 0.10656029 0.12981375 0.15230113 0.069169626 0.22171651 -0.1403832 -0.12926319 0.04455227 0.13275932 -0.06025866 -0.029062992 -0.0750164 0.12455903 -0.078357995 0.032500383 0.12854168 -0.024261322 -0.052468497 0.0694174 0.104372814 -0.036933694 -0.07897727 -0.04268212 -0.106033005 0.032937095 0.07747983 -0.07337687 0.19458558 0.009944717 -0.11156484 0.0644159 0.095963955 0.006290079 0.04941521 0.19701803 -0.1676104 0.08247572 0.16491796 -0.062836684 -0.037977695 -0.108031556 -0.010629088 0.114020094 -0.059802197 -0.23434603 -0.2868038 0.022209156 -0.10292298 -0.26730087 -0.036248058 0.044688486 -0.040926926 -0.09838118 -0.053543188 -0.024680218 -0.08531043 -0.03680275 -0.07158174 -0.004656414 -0.04001627 0.0081160795 0.15508695 -0.0038284322 0.009351105 -0.07310483 0.19530104 0.13103807 0.109488286 -0.09633646 -0.10917838 0.06559007 0.041304063 -0.013371961 -0.10873944 -0.08817649 0.014090217
23 0.07880204 -0.103312746 0.16728464 -0.08299451 -0.091005884 -0.31280717 -0.076410085 0.11061641 0.05593941 -0.024947003 0.30735764 0.06273297 0.07895649 0.05895815 -0.032410376 -0.051110454 -0.021653408 0.11117695 -0.24696258 -0.11373802 0.2110737 0.08623258 0.22966349 -0.036536913 -0.046337444 0.093800314 -0.021199103 0.11104029 -0.07969477 -0.07453146 -0.2721457 -0.14682186 0.1082674 0.16667995 -0.18086052 0.07290989 0.13872518 -0.052250616 0.119075105 0.03643132 -0.14047657 0.12007688 -0.031226384 -0.16224223 -0.13067742 -0.05659506 0.08667991 -0.07303146 0.10924063 0.025469853 0.0682439 -0.027496027 -0.052985072 0.10254037 0.030682035 0.069199726 0.18340862 -0.24589202 -0.14578666 0.13914281 0.16150215 0.00914101 -0.1063072 -0.14240219 0.11885545 -0.005031906 0.09099576 0.06111566 -0.021146068 -0.11904375 0.14099623 -0.05109688 -0.11575056 -0.23211224 0.07215425 -0.11585239 0.15898125 -0.088961 -0.07168311 0.09649187 -0.0017358995 -0.012742669 0.17807224 0.17013818 -0.11868576 0.078438394 0.01839978 -0.22643653 -0.014870585 0.089571975 -0.06993802 -0.026383117 0.028940985 0.044807512 0.15132886 0.049739372 -0.22730619 -0.32805386 0.052413575 -0.06251762 -0.20418425 -0.03251799 0.21990432 0.011942893 -0.016938983 -0.12261213 -0.034403354 -0.04650277 0.07705682 0.018385306 -0.09457742 0.029718159 0.10291343 0.18021713 0.03317793 0.084868506 -0.13852468 0.057442818 0.11256681 -0.113376856 -0.12072204 -0.10019543 -0.008875735 0.023794862 0.012084709 -0.08378567 -0.21099788 -0.0026845231
17 0.009647145 0.097601235 -0.100680344 0.05497407 -0.18443653 0.03358072 0.04441406 0.18273005 -0.27135944 0.009786888 0.013234816 -0.19675043 -0.27400136 0.05288538 0.123814985 -0.13450755 0.117942005 -0.07392798 -0.34179795 -0.36474928 -0.030008566 0.11938423 0.09324751 0.26530123 0.102743395 -0.15110286 0.109517984 0.06661903 -0.18722351 -0.12106612 -0.1870862 -0.099607244 0.11204755 -0.33205208 -0.2859943 -0.073096715 0.2744994 -0.035810493 0.064742126 -0.15748625 0.056244005 -0.08971749 -0.084309295 0.00054858177 -0.26910266 -0.03867015 -0.115338415 0.105650455 0.18814464 0.035734143 -0.10092254 0.019028606 0.1715047 0.020757148 0.1766394 0.0070566535 0.18092832 -0.16779195 -0.063793726 0.33533633 0.008882135 0.091088474 -0.16720046 -0.10751412 -0.0016467485 0.06666931 -0.09203868 -0.04343689 -0.30199116 -0.14265122 0.27175048 0.18134516 -0.035576742 -0.01607256 -0.027275324 -0.04669561 -0.07315196 -0.082333885 0.05047715 0.01596006 0.14943844 -0.022666954 -0.014993184 -0.0010303728 -0.23128442 0.21152987 0.14593352 0.074845664 -0.021186478 0.05836821 -0.026348846 0.14257143 0.27027336 0.0424383 0.087057635 0.11286743 -0.307104 -0.09040045 -0.22804059 0.10000792 -0.07435737 0.108930945 0.09375554 0.33547014 0.28979012 -0.2823121 0.15049843 -0.034949582 -0.06243534 -0.13085802 0.082555205 -0.15966693 0.0059812707 0.28338948 0.09505526 0.14791468 -0.059862517 0.26779252 0.028633196 0.07147013 0.041237183 -0.20428433 0.1571915 -0.08625041 0.17821066 -0.091488354 0.049047347 0.027058892
13 -0.019753521 0.008380275 -0.062080774 -0.05185668 -0.15876892 -0.05718166 0.013482182 0.11785889 -0.23368917 -0.055748463 0.1262107 -0.048662897 -0.2306925 0.0066191424 0.13176477 -0.15890834 0.13101147 -0.0048588407 -0.21051764 -0.2811029 0.020358909 0.009003829 0.10103567 0.2220867 0.14550471 -0.033831734 0.04384658 0.020863678 -0.021330496 -0.20026955 -0.19115816 -0.04068633 0.11433495 -0.23673917 -0.15389644 0.049813047 0.2511977 0.03983083 0.06628197 -0.10180974 0.06808271 0.04087594 -0.09188188 -0.023649849 -0.12163941 0.027415289 -0.07640355 0.011388929 0.19198518 0.020724252 -0.051855605 -0.009840659 0.15803672 0.057293557 0.2530346 0.06672118 0.07965496 -0.15512817 -0.046406157 0.14934917 0.12293401 0.05016169 -0.13223796 -0.023293477 0.029675094 0.08065251 0.05747605 0.01664587 -0.18293652 -0.17525962 0.1928333 0.042185627 0.006884024 -0.099588014 -0.020536214 0.118193254 -0.02511379 -0.002264858 0.037313707 -0.0036136622 0.10981147 -0.018187696 -0.0060499553 0.030200832 -0.088493206 0.15575075 0.067003265 -0.053953867 -0.029806053 0.024624122 -0.07185161 0.14018095 0.17497864 0.022996875 0.12079035 0.1038398 -0.27127308 -0.096778035 -0.024088787 0.011442788 -0.10909453 0.07589792 0.14943516 0.17221 0.27129665 -0.18581328 0.078471914 -0.07455818 0.017680613 -0.20744239 0.06768805 -0.08132666 0.017262269 0.101726584 0.1359269 0.05079936 -0.073838785 0.18147661 -0.0029194616 0.1055117 0.056783073 -0.07916354 0.06341638 -0.12348032 0.018475734 -0.05991906 0.044749398 -0.035939228
12 -0.036396403 0.0028939557 -0.05510832 0.005258855 -0.12546094 -0.02599188 0.055555474 0.10066009 -0.23530509 -0.028959926 0.1082021 -0.1087587 -0.21857606 -0.045437302 0.10151993 -0.15968153 0.17201747 -0.036880262 -0.17430307 -0.27352604 -0.008104323 0.04906333 0.061851818 0.24891232 0.13464524 -0.044078793 0.04508355 0.017419042 -0.035407737 -0.19578032 -0.18486498 0.0013004187 0.09326309 -0.24703214 -0.14728235 0.04907489 0.29149026 0.033040985 0.09109462 -0.13787691 0.083662786 0.011215413 -0.11450029 -0.0034640734 -0.09319469 0.0030149657 -0.104628995 0.04287714 0.16867353 0.06308015 -0.07244551 0.009007838 0.18253233 0.044247497 0.23880605 -0.0016476369 0.08524649 -0.12550257 -0.05031951 0.17231138 0.10246872 0.027524462 -0.08368793 -0.047472373 0.018357903 0.048688468 0.009520928 0.023431402 -0.18251516 -0.15323338 0.22728267 0.06485429 -0.0128292935 -0.06309466 -0.038458496 0.07736436 -0.037632123 -0.028763715 0.053165685 0.022460045 0.07906449 -0.04238542 -0.029014466 0.06622596 -0.098064914 0.17750399 0.120788656 -0.019238455 0.001027111 0.06468624 -0.038962282 0.14003935 0.18885145 0.031419657 0.13105029 0.105121024 -0.29053956 -0.10086553 -0.06833703 0.043949813 -0.107034184 0.072160944 0.08221643 0.20014384 0.30041412 -0.20874865 0.07404882 -0.057394654 0.007892895 -0.19174351 0.078393824 -0.1209743 0.022250848 0.10405148 0.08118286 0.033561606 -0.029679611 0.22935368 -0.042533755 0.11718296 0.063283294 -0.111336544 0.07824776 -0.13352028 0.03790813 -0.054869838 0.060305998 0.03462971
